<?xml version="1.0"?>
<opencv_storage>
<stage0>
  <maxWeakCount>4</maxWeakCount>
  <stageThreshold>-1.1198204755783081e+00</stageThreshold>
  <weakClassifiers>
    <_>
      <internalNodes>
        0 -1 166 -547751954 -644099749 1292144779 -37371425 -1741975857
        -557264597 -1161197125 -73401909</internalNodes>
      <leafValues>
        -9.3766939640045166e-01 2.1985815465450287e-01</leafValues></_>
    <_>
      <internalNodes>
        0 -1 8139 -909380642 2105120510 1426118026 -545748800
        -1943481921 -107245173 -1475986488 -1185945009</internalNodes>
      <leafValues>
        -9.5227360725402832e-01 2.0573140680789948e-01</leafValues></_>
    <_>
      <internalNodes>
        0 -1 55558 -779488818 -237546224 1157694937 2032730517
        -2013093742 -2104852346 -661939794 -676906371</internalNodes>
      <leafValues>
        -7.9841172695159912e-01 5.1902598142623901e-01</leafValues></_>
    <_>
      <internalNodes>
        0 -1 49577 -405576364 -619228959 332301275 -2015078 -670991785
        1208123803 -850696009 -1250956611</internalNodes>
      <leafValues>
        -9.0643101930618286e-01 4.9899384379386902e-01</leafValues></_></weakClassifiers></stage0>
</opencv_storage>
